<?xml version="1.0"?>
<opencv_storage>
<cascade>
  <stageType>BOOST</stageType>
  <featureType>HAAR</featureType>
  <height>32</height>
  <width>20</width>
  <stageParams>
    <boostType>GAB</boostType>
    <minHitRate>9.9500000476837158e-01</minHitRate>
    <maxFalseAlarm>5.0000000000000000e-01</maxFalseAlarm>
    <weightTrimRate>9.4999999999999996e-01</weightTrimRate>
    <maxDepth>1</maxDepth>
    <maxWeakCount>100</maxWeakCount></stageParams>
  <featureParams>
    <maxCatCount>0</maxCatCount>
    <featSize>1</featSize>
    <mode>BASIC</mode></featureParams>
  <stageNum>12</stageNum>
  <stages>
    <!-- stage 0 -->
    <_>
      <maxWeakCount>2</maxWeakCount>
      <stageThreshold>3.1458415091037750e-02</stageThreshold>
      <weakClassifiers>
        <_>
          <internalNodes>
            0 -1 27 -9.3630693852901459e-02</internalNodes>
          <leafValues>
            9.9492383003234863e-01 -9.3203884363174438e-01</leafValues></_>
        <_>
          <internalNodes>
            0 -1 36 1.7281188047491014e-04</internalNodes>
          <leafValues>
            -9.6346545219421387e-01 9.8069685697555542e-01</leafValues></_></weakClassifiers></_>
    <!-- stage 1 -->
    <_>
      <maxWeakCount>2</maxWeakCount>
      <stageThreshold>-5.1225963979959488e-02</stageThreshold>
      <weakClassifiers>
        <_>
          <internalNodes>
            0 -1 24 -3.1163421226665378e-04</internalNodes>
          <leafValues>
            9.4472360610961914e-01 -8.7128710746765137e-01</leafValues></_>
        <_>
          <internalNodes>
            0 -1 7 1.8462168052792549e-02</internalNodes>
          <leafValues>
            -8.4854036569595337e-01 8.2006114721298218e-01</leafValues></_></weakClassifiers></_>
    <!-- stage 2 -->
    <_>
      <maxWeakCount>4</maxWeakCount>
      <stageThreshold>-1.7853970825672150e-01</stageThreshold>
      <weakClassifiers>
        <_>
          <internalNodes>
            0 -1 20 1.0477341711521149e-01</internalNodes>
          <leafValues>
            -6.0406088829040527e-01 7.9156327247619629e-01</leafValues></_>
        <_>
          <internalNodes>
            0 -1 19 -5.6974567996803671e-05</internalNodes>
          <leafValues>
            6.9749552011489868e-01 -7.2279447317123413e-01</leafValues></_>
        <_>
          <internalNodes>
            0 -1 48 -5.8726483257487416e-04</internalNodes>
          <leafValues>
            -8.5989278554916382e-01 5.7788676023483276e-01</leafValues></_>
        <_>
          <internalNodes>
            0 -1 6 3.1265236437320709e-02</internalNodes>
          <leafValues>
            -7.2101914882659912e-01 6.1258429288864136e-01</leafValues></_></weakClassifiers></_>
    <!-- stage 3 -->
    <_>
      <maxWeakCount>4</maxWeakCount>
      <stageThreshold>-5.9915930032730103e-01</stageThreshold>
      <weakClassifiers>
        <_>
          <internalNodes>
            0 -1 37 -1.5447007492184639e-02</internalNodes>
          <leafValues>
            6.9536423683166504e-01 -7.8231292963027954e-01</leafValues></_>
        <_>
          <internalNodes>
            0 -1 12 -1.5369117027148604e-03</internalNodes>
          <leafValues>
            -7.5950270891189575e-01 5.3426152467727661e-01</leafValues></_>
        <_>
          <internalNodes>
            0 -1 38 -2.9321247711777687e-04</internalNodes>
          <leafValues>
            5.2414447069168091e-01 -7.6429855823516846e-01</leafValues></_>
        <_>
          <internalNodes>
            0 -1 25 5.0608508288860321e-02</internalNodes>
          <leafValues>
            -7.9284590482711792e-01 4.1319066286087036e-01</leafValues></_></weakClassifiers></_>
    <!-- stage 4 -->
    <_>
      <maxWeakCount>5</maxWeakCount>
      <stageThreshold>-8.1740945577621460e-01</stageThreshold>
      <weakClassifiers>
        <_>
          <internalNodes>
            0 -1 9 -5.3901225328445435e-04</internalNodes>
          <leafValues>
            -5.4601228237152100e-01 6.6132724285125732e-01</leafValues></_>
        <_>
          <internalNodes>
            0 -1 17 -1.1267461813986301e-03</internalNodes>
          <leafValues>
            4.6886980533599854e-01 -7.2385430335998535e-01</leafValues></_>
        <_>
          <internalNodes>
            0 -1 32 -8.6841210722923279e-02</internalNodes>
          <leafValues>
            7.1192204952239990e-01 -5.5163264274597168e-01</leafValues></_>
        <_>
          <internalNodes>
            0 -1 45 -5.5478150898125023e-05</internalNodes>
          <leafValues>
            5.2267181873321533e-01 -6.1486470699310303e-01</leafValues></_>
        <_>
          <internalNodes>
            0 -1 29 -3.7675336003303528e-02</internalNodes>
          <leafValues>
            4.2623037099838257e-01 -8.7355375289916992e-01</leafValues></_></weakClassifiers></_>
    <!-- stage 5 -->
    <_>
      <maxWeakCount>5</maxWeakCount>
      <stageThreshold>-1.0822459459304810e+00</stageThreshold>
      <weakClassifiers>
        <_>
          <internalNodes>
            0 -1 49 -6.7937118001282215e-04</internalNodes>
          <leafValues>
            -7.3684209585189819e-01 6.9642859697341919e-01</leafValues></_>
        <_>
          <internalNodes>
            0 -1 33 -4.2561866575852036e-04</internalNodes>
          <leafValues>
            5.6215709447860718e-01 -8.7738424539566040e-01</leafValues></_>
        <_>
          <internalNodes>
            0 -1 0 -1.0327002033591270e-02</internalNodes>
          <leafValues>
            -9.2678201198577881e-01 3.8630941510200500e-01</leafValues></_>
        <_>
          <internalNodes>
            0 -1 39 -2.6463945396244526e-03</internalNodes>
          <leafValues>
            3.9035469293594360e-01 -8.2097601890563965e-01</leafValues></_>
        <_>
          <internalNodes>
            0 -1 13 2.2610386833548546e-02</internalNodes>
          <leafValues>
            -4.7289422154426575e-01 6.7821341753005981e-01</leafValues></_></weakClassifiers></_>
    <!-- stage 6 -->
    <_>
      <maxWeakCount>5</maxWeakCount>
      <stageThreshold>-5.4121631383895874e-01</stageThreshold>
      <weakClassifiers>
        <_>
          <internalNodes>
            0 -1 21 6.0182645916938782e-02</internalNodes>
          <leafValues>
            -5.0467288494110107e-01 6.6791045665740967e-01</leafValues></_>
        <_>
          <internalNodes>
            0 -1 44 -2.5800947099924088e-02</internalNodes>
          <leafValues>
            5.9846538305282593e-01 -4.5635738968849182e-01</leafValues></_>
        <_>
          <internalNodes>
            0 -1 28 8.4669813513755798e-02</internalNodes>
          <leafValues>
            -4.1705489158630371e-01 5.9719842672348022e-01</leafValues></_>
        <_>
          <internalNodes>
            0 -1 3 -9.5599098131060600e-04</internalNodes>
          <leafValues>
            -7.8042709827423096e-01 3.0758470296859741e-01</leafValues></_>
        <_>
          <internalNodes>
            0 -1 15 2.6494851335883141e-03</internalNodes>
          <leafValues>
            -4.8496913909912109e-01 5.1784735918045044e-01</leafValues></_></weakClassifiers></_>
    <!-- stage 7 -->
    <_>
      <maxWeakCount>6</maxWeakCount>
      <stageThreshold>-8.3127117156982422e-01</stageThreshold>
      <weakClassifiers>
        <_>
          <internalNodes>
            0 -1 43 1.9801041344180703e-04</internalNodes>
          <leafValues>
            -7.9032260179519653e-01 5.5591052770614624e-01</leafValues></_>
        <_>
          <internalNodes>
            0 -1 14 1.2696292251348495e-03</internalNodes>
          <leafValues>
            -5.1653307676315308e-01 5.2031588554382324e-01</leafValues></_>
        <_>
          <internalNodes>
            0 -1 50 -1.3706311583518982e-03</internalNodes>
          <leafValues>
            -8.2260864973068237e-01 3.7783062458038330e-01</leafValues></_>
        <_>
          <internalNodes>
            0 -1 10 -1.9672913849353790e-01</internalNodes>
          <leafValues>
            3.6397191882133484e-01 -7.2524398565292358e-01</leafValues></_>
        <_>
          <internalNodes>
            0 -1 34 -1.7788306286092848e-04</internalNodes>
          <leafValues>
            4.2438066005706787e-01 -6.6654229164123535e-01</leafValues></_>
        <_>
          <internalNodes>
            0 -1 42 -4.1243230225518346e-04</internalNodes>
          <leafValues>
            3.0689731240272522e-01 -7.7503138780593872e-01</leafValues></_></weakClassifiers></_>
    <!-- stage 8 -->
    <_>
      <maxWeakCount>7</maxWeakCount>
      <stageThreshold>-1.6294575929641724e+00</stageThreshold>
      <weakClassifiers>
        <_>
          <internalNodes>
            0 -1 8 1.7298121005296707e-02</internalNodes>
          <leafValues>
            -6.7412137985229492e-01 3.0538922548294067e-01</leafValues></_>
        <_>
          <internalNodes>
            0 -1 16 1.3806498609483242e-03</internalNodes>
          <leafValues>
            -4.9468380212783813e-01 3.9133220911026001e-01</leafValues></_>
        <_>
          <internalNodes>
            0 -1 2 -4.0200613439083099e-03</internalNodes>
          <leafValues>
            -8.0574780702590942e-01 2.5371608138084412e-01</leafValues></_>
        <_>
          <internalNodes>
            0 -1 22 -4.1623756289482117e-02</internalNodes>
          <leafValues>
            2.6184916496276855e-01 -6.6795170307159424e-01</leafValues></_>
        <_>
          <internalNodes>
            0 -1 23 -7.9931376967579126e-04</internalNodes>
          <leafValues>
            2.6874014735221863e-01 -7.8973132371902466e-01</leafValues></_>
        <_>
          <internalNodes>
            0 -1 52 -3.6836706567555666e-04</internalNodes>
          <leafValues>
            -7.1367919445037842e-01 2.3457258939743042e-01</leafValues></_>
        <_>
          <internalNodes>
            0 -1 35 -4.6246929559856653e-04</internalNodes>
          <leafValues>
            3.4711641073226929e-01 -5.3127855062484741e-01</leafValues></_></weakClassifiers></_>
    <!-- stage 9 -->
    <_>
      <maxWeakCount>2</maxWeakCount>
      <stageThreshold>-6.0658651590347290e-01</stageThreshold>
      <weakClassifiers>
        <_>
          <internalNodes>
            0 -1 47 -1.6185070853680372e-03</internalNodes>
          <leafValues>
            -8.8559323549270630e-01 2.0081967115402222e-01</leafValues></_>
        <_>
          <internalNodes>
            0 -1 1 9.7964674234390259e-02</internalNodes>
          <leafValues>
            -8.0114978551864624e-01 2.7900668978691101e-01</leafValues></_></weakClassifiers></_>
    <!-- stage 10 -->
    <_>
      <maxWeakCount>7</maxWeakCount>
      <stageThreshold>-1.6434609889984131e+00</stageThreshold>
      <weakClassifiers>
        <_>
          <internalNodes>
            0 -1 18 3.2196674495935440e-02</internalNodes>
          <leafValues>
            -6.5990638732910156e-01 3.2288402318954468e-01</leafValues></_>
        <_>
          <internalNodes>
            0 -1 26 1.1022178828716278e-01</internalNodes>
          <leafValues>
            -6.2228202819824219e-01 3.2724606990814209e-01</leafValues></_>
        <_>
          <internalNodes>
            0 -1 4 -1.1740859008568805e-05</internalNodes>
          <leafValues>
            -7.7815592288970947e-01 2.3581729829311371e-01</leafValues></_>
        <_>
          <internalNodes>
            0 -1 5 6.5273791551589966e-02</internalNodes>
          <leafValues>
            -2.7702698111534119e-01 6.3546442985534668e-01</leafValues></_>
        <_>
          <internalNodes>
            0 -1 46 -1.5584623906761408e-04</internalNodes>
          <leafValues>
            -7.5907260179519653e-01 2.0402960479259491e-01</leafValues></_>
        <_>
          <internalNodes>
            0 -1 41 -9.2361690476536751e-03</internalNodes>
          <leafValues>
            2.8829964995384216e-01 -7.3504269123077393e-01</leafValues></_>
        <_>
          <internalNodes>
            0 -1 31 -2.2918255126569420e-04</internalNodes>
          <leafValues>
            2.0158103108406067e-01 -6.6501462459564209e-01</leafValues></_></weakClassifiers></_>
    <!-- stage 11 -->
    <_>
      <maxWeakCount>4</maxWeakCount>
      <stageThreshold>-1.0808464288711548e+00</stageThreshold>
      <weakClassifiers>
        <_>
          <internalNodes>
            0 -1 30 -5.2355695515871048e-02</internalNodes>
          <leafValues>
            1.4970059692859650e-01 -8.6056643724441528e-01</leafValues></_>
        <_>
          <internalNodes>
            0 -1 40 -6.3014194893185049e-05</internalNodes>
          <leafValues>
            3.3964303135871887e-01 -6.8864971399307251e-01</leafValues></_>
        <_>
          <internalNodes>
            0 -1 11 1.4114826917648315e-02</internalNodes>
          <leafValues>
            -6.4421367645263672e-01 2.9622864723205566e-01</leafValues></_>
        <_>
          <internalNodes>
            0 -1 51 -8.7237058323808014e-05</internalNodes>
          <leafValues>
            -9.4065922498703003e-01 1.7214110493659973e-01</leafValues></_></weakClassifiers></_></stages>
  <features>
    <_>
      <rects>
        <_>
          0 0 3 11 -1.</_>
        <_>
          1 0 1 11 2.</_></rects>
      <tilted>0</tilted></_>
    <_>
      <rects>
        <_>
          0 0 19 12 -1.</_>
        <_>
          0 6 19 6 2.</_></rects>
      <tilted>0</tilted></_>
    <_>
      <rects>
        <_>
          0 0 20 3 -1.</_>
        <_>
          0 1 20 1 2.</_></rects>
      <tilted>0</tilted></_>
    <_>
      <rects>
        <_>
          0 1 2 30 -1.</_>
        <_>
          0 11 2 10 2.</_></rects>
      <tilted>0</tilted></_>
    <_>
      <rects>
        <_>
          0 2 1 6 -1.</_>
        <_>
          0 4 1 2 2.</_></rects>
      <tilted>0</tilted></_>
    <_>
      <rects>
        <_>
          0 2 6 23 -1.</_>
        <_>
          3 2 3 23 2.</_></rects>
      <tilted>0</tilted></_>
    <_>
      <rects>
        <_>
          0 2 8 18 -1.</_>
        <_>
          4 2 4 18 2.</_></rects>
      <tilted>0</tilted></_>
    <_>
      <rects>
        <_>
          0 2 12 11 -1.</_>
        <_>
          6 2 6 11 2.</_></rects>
      <tilted>0</tilted></_>
    <_>
      <rects>
        <_>
          0 3 18 6 -1.</_>
        <_>
          6 3 6 6 2.</_></rects>
      <tilted>0</tilted></_>
    <_>
      <rects>
        <_>
          0 5 1 15 -1.</_>
        <_>
          0 10 1 5 2.</_></rects>
      <tilted>0</tilted></_>
    <_>
      <rects>
        <_>
          0 6 20 26 -1.</_>
        <_>
          0 19 20 13 2.</_></rects>
      <tilted>0</tilted></_>
    <_>
      <rects>
        <_>
          0 9 8 6 -1.</_>
        <_>
          4 9 4 6 2.</_></rects>
      <tilted>0</tilted></_>
    <_>
      <rects>
        <_>
          0 10 1 18 -1.</_>
        <_>
          0 16 1 6 2.</_></rects>
      <tilted>0</tilted></_>
    <_>
      <rects>
        <_>
          0 11 6 13 -1.</_>
        <_>
          3 11 3 13 2.</_></rects>
      <tilted>0</tilted></_>
    <_>
      <rects>
        <_>
          0 14 6 3 -1.</_>
        <_>
          3 14 3 3 2.</_></rects>
      <tilted>0</tilted></_>
    <_>
      <rects>
        <_>
          0 15 6 3 -1.</_>
        <_>
          3 15 3 3 2.</_></rects>
      <tilted>0</tilted></_>
    <_>
      <rects>
        <_>
          0 18 6 4 -1.</_>
        <_>
          3 18 3 4 2.</_></rects>
      <tilted>0</tilted></_>
    <_>
      <rects>
        <_>
          0 18 7 14 -1.</_>
        <_>
          0 25 7 7 2.</_></rects>
      <tilted>0</tilted></_>
    <_>
      <rects>
        <_>
          1 2 18 9 -1.</_>
        <_>
          7 2 6 9 2.</_></rects>
      <tilted>0</tilted></_>
    <_>
      <rects>
        <_>
          1 23 11 8 -1.</_>
        <_>
          1 27 11 4 2.</_></rects>
      <tilted>0</tilted></_>
    <_>
      <rects>
        <_>
          2 0 14 14 -1.</_>
        <_>
          2 7 14 7 2.</_></rects>
      <tilted>0</tilted></_>
    <_>
      <rects>
        <_>
          2 0 15 10 -1.</_>
        <_>
          2 5 15 5 2.</_></rects>
      <tilted>0</tilted></_>
    <_>
      <rects>
        <_>
          2 9 13 12 -1.</_>
        <_>
          2 15 13 6 2.</_></rects>
      <tilted>0</tilted></_>
    <_>
      <rects>
        <_>
          2 17 7 3 -1.</_>
        <_>
          2 18 7 1 2.</_></rects>
      <tilted>0</tilted></_>
    <_>
      <rects>
        <_>
          2 22 17 10 -1.</_>
        <_>
          2 27 17 5 2.</_></rects>
      <tilted>0</tilted></_>
    <_>
      <rects>
        <_>
          3 0 13 10 -1.</_>
        <_>
          3 5 13 5 2.</_></rects>
      <tilted>0</tilted></_>
    <_>
      <rects>
        <_>
          3 0 13 12 -1.</_>
        <_>
          3 6 13 6 2.</_></rects>
      <tilted>0</tilted></_>
    <_>
      <rects>
        <_>
          4 6 14 26 -1.</_>
        <_>
          4 19 14 13 2.</_></rects>
      <tilted>0</tilted></_>
    <_>
      <rects>
        <_>
          7 3 12 28 -1.</_>
        <_>
          7 3 6 14 2.</_>
        <_>
          13 17 6 14 2.</_></rects>
      <tilted>0</tilted></_>
    <_>
      <rects>
        <_>
          7 4 9 24 -1.</_>
        <_>
          7 16 9 12 2.</_></rects>
      <tilted>0</tilted></_>
    <_>
      <rects>
        <_>
          7 5 6 20 -1.</_>
        <_>
          7 15 6 10 2.</_></rects>
      <tilted>0</tilted></_>
    <_>
      <rects>
        <_>
          7 24 6 8 -1.</_>
        <_>
          7 28 6 4 2.</_></rects>
      <tilted>0</tilted></_>
    <_>
      <rects>
        <_>
          8 1 12 13 -1.</_>
        <_>
          14 1 6 13 2.</_></rects>
      <tilted>0</tilted></_>
    <_>
      <rects>
        <_>
          8 22 10 10 -1.</_>
        <_>
          8 27 10 5 2.</_></rects>
      <tilted>0</tilted></_>
    <_>
      <rects>
        <_>
          8 24 3 8 -1.</_>
        <_>
          8 28 3 4 2.</_></rects>
      <tilted>0</tilted></_>
    <_>
      <rects>
        <_>
          8 24 4 8 -1.</_>
        <_>
          8 28 4 4 2.</_></rects>
      <tilted>0</tilted></_>
    <_>
      <rects>
        <_>
          10 0 6 10 -1.</_>
        <_>
          10 5 6 5 2.</_></rects>
      <tilted>0</tilted></_>
    <_>
      <rects>
        <_>
          10 5 10 9 -1.</_>
        <_>
          15 5 5 9 2.</_></rects>
      <tilted>0</tilted></_>
    <_>
      <rects>
        <_>
          10 22 5 10 -1.</_>
        <_>
          10 27 5 5 2.</_></rects>
      <tilted>0</tilted></_>
    <_>
      <rects>
        <_>
          12 17 8 14 -1.</_>
        <_>
          12 24 8 7 2.</_></rects>
      <tilted>0</tilted></_>
    <_>
      <rects>
        <_>
          12 23 8 5 -1.</_>
        <_>
          16 23 4 5 2.</_></rects>
      <tilted>0</tilted></_>
    <_>
      <rects>
        <_>
          13 14 7 18 -1.</_>
        <_>
          13 23 7 9 2.</_></rects>
      <tilted>0</tilted></_>
    <_>
      <rects>
        <_>
          13 20 7 12 -1.</_>
        <_>
          13 26 7 6 2.</_></rects>
      <tilted>0</tilted></_>
    <_>
      <rects>
        <_>
          14 0 6 16 -1.</_>
        <_>
          14 8 6 8 2.</_></rects>
      <tilted>0</tilted></_>
    <_>
      <rects>
        <_>
          14 7 6 23 -1.</_>
        <_>
          17 7 3 23 2.</_></rects>
      <tilted>0</tilted></_>
    <_>
      <rects>
        <_>
          14 22 6 7 -1.</_>
        <_>
          17 22 3 7 2.</_></rects>
      <tilted>0</tilted></_>
    <_>
      <rects>
        <_>
          18 3 2 6 -1.</_>
        <_>
          18 5 2 2 2.</_></rects>
      <tilted>0</tilted></_>
    <_>
      <rects>
        <_>
          18 7 2 18 -1.</_>
        <_>
          18 13 2 6 2.</_></rects>
      <tilted>0</tilted></_>
    <_>
      <rects>
        <_>
          19 2 1 30 -1.</_>
        <_>
          19 12 1 10 2.</_></rects>
      <tilted>0</tilted></_>
    <_>
      <rects>
        <_>
          19 3 1 12 -1.</_>
        <_>
          19 7 1 4 2.</_></rects>
      <tilted>0</tilted></_>
    <_>
      <rects>
        <_>
          19 5 1 18 -1.</_>
        <_>
          19 11 1 6 2.</_></rects>
      <tilted>0</tilted></_>
    <_>
      <rects>
        <_>
          19 6 1 3 -1.</_>
        <_>
          19 7 1 1 2.</_></rects>
      <tilted>0</tilted></_>
    <_>
      <rects>
        <_>
          19 10 1 21 -1.</_>
        <_>
          19 17 1 7 2.</_></rects>
      <tilted>0</tilted></_></features></cascade>
</opencv_storage>
