<?xml version="1.0"?>
<opencv_storage>
<cascade>
  <stageType>BOOST</stageType>
  <featureType>HAAR</featureType>
  <height>24</height>
  <width>24</width>
  <stageParams>
    <boostType>GAB</boostType>
    <minHitRate>9.9500000476837158e-01</minHitRate>
    <maxFalseAlarm>5.0000000000000000e-01</maxFalseAlarm>
    <weightTrimRate>9.4999999999999996e-01</weightTrimRate>
    <maxDepth>1</maxDepth>
    <maxWeakCount>100</maxWeakCount></stageParams>
  <featureParams>
    <maxCatCount>0</maxCatCount>
    <featSize>1</featSize>
    <mode>BASIC</mode></featureParams>
  <stageNum>3</stageNum>
  <stages>
    <!-- stage 0 -->
    <_>
      <maxWeakCount>1</maxWeakCount>
      <stageThreshold>9.8511165380477905e-01</stageThreshold>
      <weakClassifiers>
        <_>
          <internalNodes>
            0 -1 4 -9.9504293757490814e-05</internalNodes>
          <leafValues>
            9.8511165380477905e-01 -1.</leafValues></_></weakClassifiers></_>
    <!-- stage 1 -->
    <_>
      <maxWeakCount>2</maxWeakCount>
      <stageThreshold>8.4267901256680489e-03</stageThreshold>
      <weakClassifiers>
        <_>
          <internalNodes>
            0 -1 2 -2.0720908045768738e-01</internalNodes>
          <leafValues>
            9.5488721132278442e-01 -9.0049749612808228e-01</leafValues></_>
        <_>
          <internalNodes>
            0 -1 3 -1.4782351255416870e-01</internalNodes>
          <leafValues>
            9.0892428159713745e-01 -8.7575024366378784e-01</leafValues></_></weakClassifiers></_>
    <!-- stage 2 -->
    <_>
      <maxWeakCount>3</maxWeakCount>
      <stageThreshold>-7.9968559741973877e-01</stageThreshold>
      <weakClassifiers>
        <_>
          <internalNodes>
            0 -1 0 1.2803263962268829e-01</internalNodes>
          <leafValues>
            -8.0198019742965698e-01 9.0954774618148804e-01</leafValues></_>
        <_>
          <internalNodes>
            0 -1 5 -4.4423036277294159e-02</internalNodes>
          <leafValues>
            8.2526165246963501e-01 -7.3349142074584961e-01</leafValues></_>
        <_>
          <internalNodes>
            0 -1 1 1.6170883178710938e-01</internalNodes>
          <leafValues>
            -6.9051176309585571e-01 7.3578602075576782e-01</leafValues></_></weakClassifiers></_></stages>
  <features>
    <_>
      <rects>
        <_>
          0 6 12 13 -1.</_>
        <_>
          6 6 6 13 2.</_></rects>
      <tilted>0</tilted></_>
    <_>
      <rects>
        <_>
          5 0 13 12 -1.</_>
        <_>
          5 6 13 6 2.</_></rects>
      <tilted>0</tilted></_>
    <_>
      <rects>
        <_>
          5 8 16 16 -1.</_>
        <_>
          5 16 16 8 2.</_></rects>
      <tilted>0</tilted></_>
    <_>
      <rects>
        <_>
          10 5 14 13 -1.</_>
        <_>
          17 5 7 13 2.</_></rects>
      <tilted>0</tilted></_>
    <_>
      <rects>
        <_>
          10 8 1 3 -1.</_>
        <_>
          10 9 1 1 2.</_></rects>
      <tilted>0</tilted></_>
    <_>
      <rects>
        <_>
          11 4 3 16 -1.</_>
        <_>
          12 4 1 16 2.</_></rects>
      <tilted>0</tilted></_></features></cascade>
</opencv_storage>
