<?xml version="1.0"?>
<opencv_storage>
<stage10>
  <maxWeakCount>7</maxWeakCount>
  <stageThreshold>-1.6434609889984131e+00</stageThreshold>
  <weakClassifiers>
    <_>
      <internalNodes>
        0 -1 22163 3.2196674495935440e-02</internalNodes>
      <leafValues>
        -6.5990638732910156e-01 3.2288402318954468e-01</leafValues></_>
    <_>
      <internalNodes>
        0 -1 56319 1.1022178828716278e-01</internalNodes>
      <leafValues>
        -6.2228202819824219e-01 3.2724606990814209e-01</leafValues></_>
    <_>
      <internalNodes>
        0 -1 2346 -1.1740859008568805e-05</internalNodes>
      <leafValues>
        -7.7815592288970947e-01 2.3581729829311371e-01</leafValues></_>
    <_>
      <internalNodes>
        0 -1 2622 6.5273791551589966e-02</internalNodes>
      <leafValues>
        -2.7702698111534119e-01 6.3546442985534668e-01</leafValues></_>
    <_>
      <internalNodes>
        0 -1 198387 -1.5584623906761408e-04</internalNodes>
      <leafValues>
        -7.5907260179519653e-01 2.0402960479259491e-01</leafValues></_>
    <_>
      <internalNodes>
        0 -1 179736 -9.2361690476536751e-03</internalNodes>
      <leafValues>
        2.8829964995384216e-01 -7.3504269123077393e-01</leafValues></_>
    <_>
      <internalNodes>
        0 -1 126749 -2.2918255126569420e-04</internalNodes>
      <leafValues>
        2.0158103108406067e-01 -6.6501462459564209e-01</leafValues></_></weakClassifiers></stage10>
</opencv_storage>
