<?xml version="1.0"?>
<opencv_storage>
<stage7>
  <maxWeakCount>6</maxWeakCount>
  <stageThreshold>-8.3127117156982422e-01</stageThreshold>
  <weakClassifiers>
    <_>
      <internalNodes>
        0 -1 181889 1.9801041344180703e-04</internalNodes>
      <leafValues>
        -7.9032260179519653e-01 5.5591052770614624e-01</leafValues></_>
    <_>
      <internalNodes>
        0 -1 13372 1.2696292251348495e-03</internalNodes>
      <leafValues>
        -5.1653307676315308e-01 5.2031588554382324e-01</leafValues></_>
    <_>
      <internalNodes>
        0 -1 199786 -1.3706311583518982e-03</internalNodes>
      <leafValues>
        -8.2260864973068237e-01 3.7783062458038330e-01</leafValues></_>
    <_>
      <internalNodes>
        0 -1 7547 -1.9672913849353790e-01</internalNodes>
      <leafValues>
        3.6397191882133484e-01 -7.2524398565292358e-01</leafValues></_>
    <_>
      <internalNodes>
        0 -1 138575 -1.7788306286092848e-04</internalNodes>
      <leafValues>
        4.2438066005706787e-01 -6.6654229164123535e-01</leafValues></_>
    <_>
      <internalNodes>
        0 -1 180780 -4.1243230225518346e-04</internalNodes>
      <leafValues>
        3.0689731240272522e-01 -7.7503138780593872e-01</leafValues></_></weakClassifiers></stage7>
</opencv_storage>
